net 
{ 
}
node electricity 
{
  states = ( "Cooperative" "No" "Private" "Public" "Unknown" );
}
node toilet 
{
  states = ( "Black Hole Or Letrine" "No" "Other" "Septic Tank" "Sewer Or Cesspool" );
}
node cook_energy 
{
  states = ( "Electricity" "Gas" "No" "Wood Charcoal" );
}
node rubbish_disposal 
{
  states = ( "Botan Hollow Or Buried" "Burning" "Other" "Tanker Truck" "Throw Unoccupied Space" );
}
node state_wall 
{
  states = ( "Bad" "Good" "Regular" );
}
node state_roof 
{
  states = ( "Bad" "Good" "Regular" );
}
node state_floor 
{
  states = ( "Bad" "Good" "Regular" );
}
node civil_state 
{
  states = ( "10-" "Divorced" "Free Or Coupled Union" "Married" "Separated" "Single" "Widow" );
}
node education_primary 
{
  states = ( "Complete" "Incomplete" "Unknown" );
}
node dwelling_type 
{
  states = ( "Other" "Own And Paid" "Own And Paying" "Precarious" "Rented" );
}
node y 
{
  states = ( "Non-poor" "Poor" );
}
potential ( electricity ) 
{
  data = ( 0.109103079 0.003012048 0.000669344 0.885876841 0.001338688 );
}
potential ( toilet | electricity ) 
{
  data = ((0.024539877 0.003067485 0.000000000 0.917177914 0.055214724)(0.4444444 0.2222222 0.0000000 0.1111111 0.2222222)(0.0 0.0 0.0 1.0 0.0)(0.009444654 0.004533434 0.002644503 0.738571968 0.244805440)(0.50 0.00 0.00 0.25 0.25)) ;
}
potential ( cook_energy | toilet ) 
{
  data = ((0.2051282 0.3589744 0.0000000 0.4358974)(0.40000000 0.33333333 0.20000000 0.06666667)(0.5714286 0.4285714 0.0000000 0.0000000)(0.461470328 0.484942427 0.003985828 0.049601417)(0.663677130 0.318385650 0.004484305 0.013452915)) ;
}
potential ( rubbish_disposal | cook_energy ) 
{
  data = ((0.0146276596 0.0352393617 0.0000000000 0.9494680851 0.0006648936)(0.033082707 0.112781955 0.003007519 0.848120301 0.003007519)(0.0 0.2 0.0 0.8 0.0)(0.1726619 0.3165468 0.0000000 0.5107914 0.0000000)) ;
}
potential ( state_wall | cook_energy ) 
{
  data = ((0.06914894 0.67752660 0.25332447)(0.1157895 0.5225564 0.3616541)(0.2 0.2 0.6)(0.3381295 0.2661871 0.3956835)) ;
}
potential ( state_roof | state_wall ) 
{
  data = ((0.75000000 0.07142857 0.17857143)(0.03762828 0.86374002 0.09863170)(0.1069114 0.2365011 0.6565875)) ;
}
potential ( state_floor | state_wall state_roof ) 
{
  data = (((0.78354978 0.07792208 0.13852814)(0.3181818 0.4090909 0.2727273)(0.3636364 0.1272727 0.5090909))((0.1060606 0.6666667 0.2272727)(0.005940594 0.949174917 0.044884488)(0.04046243 0.75722543 0.20231214))((0.1717172 0.4040404 0.4242424)(0.07305936 0.61643836 0.31050228)(0.04111842 0.22368421 0.73519737))) ;
}
potential ( civil_state | y ) 
{
  data = ((0.08279431 0.05993963 0.11297973 0.29883571 0.07115136 0.31996550 0.05433376)(0.16741405 0.02391629 0.13153961 0.19282511 0.10762332 0.31838565 0.05829596)) ;
}
potential ( education_primary | civil_state ) 
{
  data = ((0.0000000 0.2401316 0.7598684)(0.30967742 0.08387097 0.60645161)(0.3000000 0.1971429 0.5028571)(0.2834550 0.1240876 0.5924574)(0.2869198 0.1729958 0.5400844)(0.1664921 0.1570681 0.6764398)(0.2484848 0.3151515 0.4363636)) ;
}
potential ( dwelling_type | state_wall ) 
{
  data = ((0.13636364 0.58766234 0.01948052 0.08766234 0.16883117)(0.063854048 0.633979475 0.127708096 0.002280502 0.172177879)(0.11123110 0.61771058 0.05399568 0.01619870 0.20086393)) ;
}
potential ( y | state_wall state_floor ) 
{
  data = (((0.5336538 0.4663462)(0.5294118 0.4705882)(0.5757576 0.4242424))((0.6086957 0.3913043)(0.8797272 0.1202728)(0.720339 0.279661))((0.3965517 0.6034483)(0.7717042 0.2282958)(0.6660682 0.3339318))) ;
}
